digraph Tree {
node [shape=box, fontname="helvetica"] ;
edge [fontname="helvetica"] ;
0 [label="x[7] <= 0.071\ngini = 0.429\nsamples = 707\nvalue = [487.0, 220.0]"] ;
1 [label="x[21] <= 0.151\ngini = 0.295\nsamples = 312\nvalue = [256, 56]"] ;
0 -> 1 [labeldistance=2.5, labelangle=45, headlabel="True"] ;
2 [label="x[1] <= 0.243\ngini = 0.266\nsamples = 285\nvalue = [240, 45]"] ;
1 -> 2 ;
3 [label="x[10] <= 0.831\ngini = 0.066\nsamples = 88\nvalue = [85, 3]"] ;
2 -> 3 ;
4 [label="x[3] <= 0.965\ngini = 0.305\nsamples = 16\nvalue = [13, 3]"] ;
3 -> 4 ;
5 [label="x[19] <= 0.695\ngini = 0.469\nsamples = 8\nvalue = [5, 3]"] ;
4 -> 5 ;
6 [label="x[5] <= 0.393\ngini = 0.48\nsamples = 5\nvalue = [2, 3]"] ;
5 -> 6 ;
7 [label="gini = 0.0\nsamples = 2\nvalue = [2, 0]"] ;
6 -> 7 ;
8 [label="gini = 0.0\nsamples = 3\nvalue = [0, 3]"] ;
6 -> 8 ;
9 [label="gini = 0.0\nsamples = 3\nvalue = [3, 0]"] ;
5 -> 9 ;
10 [label="gini = 0.0\nsamples = 8\nvalue = [8, 0]"] ;
4 -> 10 ;
11 [label="gini = 0.0\nsamples = 72\nvalue = [72, 0]"] ;
3 -> 11 ;
12 [label="x[15] <= 0.279\ngini = 0.335\nsamples = 197\nvalue = [155, 42]"] ;
2 -> 12 ;
13 [label="x[28] <= 0.765\ngini = 0.464\nsamples = 63\nvalue = [40, 23]"] ;
12 -> 13 ;
14 [label="x[11] <= 0.888\ngini = 0.444\nsamples = 60\nvalue = [40, 20]"] ;
13 -> 14 ;
15 [label="x[16] <= 0.899\ngini = 0.411\nsamples = 52\nvalue = [37.0, 15.0]"] ;
14 -> 15 ;
16 [label="gini = 0.0\nsamples = 5\nvalue = [5, 0]"] ;
15 -> 16 ;
17 [label="x[4] <= 0.993\ngini = 0.435\nsamples = 47\nvalue = [32, 15]"] ;
15 -> 17 ;
18 [label="x[29] <= 0.748\ngini = 0.305\nsamples = 16\nvalue = [13, 3]"] ;
17 -> 18 ;
19 [label="x[19] <= 0.176\ngini = 0.48\nsamples = 5\nvalue = [2, 3]"] ;
18 -> 19 ;
20 [label="gini = 0.0\nsamples = 3\nvalue = [0, 3]"] ;
19 -> 20 ;
21 [label="gini = 0.0\nsamples = 2\nvalue = [2, 0]"] ;
19 -> 21 ;
22 [label="gini = 0.0\nsamples = 11\nvalue = [11, 0]"] ;
18 -> 22 ;
23 [label="x[3] <= 0.745\ngini = 0.475\nsamples = 31\nvalue = [19, 12]"] ;
17 -> 23 ;
24 [label="x[29] <= 0.786\ngini = 0.423\nsamples = 23\nvalue = [16, 7]"] ;
23 -> 24 ;
25 [label="gini = 0.0\nsamples = 7\nvalue = [7, 0]"] ;
24 -> 25 ;
26 [label="x[19] <= 0.467\ngini = 0.492\nsamples = 16\nvalue = [9, 7]"] ;
24 -> 26 ;
27 [label="x[8] <= 0.264\ngini = 0.42\nsamples = 10\nvalue = [7, 3]"] ;
26 -> 27 ;
28 [label="gini = 0.0\nsamples = 2\nvalue = [2, 0]"] ;
27 -> 28 ;
29 [label="gini = 0.469\nsamples = 8\nvalue = [5, 3]"] ;
27 -> 29 ;
30 [label="x[8] <= 0.317\ngini = 0.444\nsamples = 6\nvalue = [2, 4]"] ;
26 -> 30 ;
31 [label="x[12] <= 0.129\ngini = 0.32\nsamples = 5\nvalue = [1, 4]"] ;
30 -> 31 ;
32 [label="gini = 0.444\nsamples = 3\nvalue = [1, 2]"] ;
31 -> 32 ;
33 [label="gini = 0.0\nsamples = 2\nvalue = [0, 2]"] ;
31 -> 33 ;
34 [label="gini = 0.0\nsamples = 1\nvalue = [1, 0]"] ;
30 -> 34 ;
35 [label="x[19] <= 0.932\ngini = 0.469\nsamples = 8\nvalue = [3, 5]"] ;
23 -> 35 ;
36 [label="x[24] <= 0.644\ngini = 0.278\nsamples = 6\nvalue = [1, 5]"] ;
35 -> 36 ;
37 [label="gini = 0.375\nsamples = 4\nvalue = [1, 3]"] ;
36 -> 37 ;
38 [label="gini = 0.0\nsamples = 2\nvalue = [0, 2]"] ;
36 -> 38 ;
39 [label="gini = 0.0\nsamples = 2\nvalue = [2, 0]"] ;
35 -> 39 ;
40 [label="x[29] <= 0.505\ngini = 0.469\nsamples = 8\nvalue = [3, 5]"] ;
14 -> 40 ;
41 [label="gini = 0.0\nsamples = 2\nvalue = [2, 0]"] ;
40 -> 41 ;
42 [label="x[23] <= 0.504\ngini = 0.278\nsamples = 6\nvalue = [1, 5]"] ;
40 -> 42 ;
43 [label="gini = 0.0\nsamples = 5\nvalue = [0, 5]"] ;
42 -> 43 ;
44 [label="gini = 0.0\nsamples = 1\nvalue = [1, 0]"] ;
42 -> 44 ;
45 [label="gini = 0.0\nsamples = 3\nvalue = [0, 3]"] ;
13 -> 45 ;
46 [label="x[12] <= 0.314\ngini = 0.243\nsamples = 134\nvalue = [115, 19]"] ;
12 -> 46 ;
47 [label="x[9] <= 0.095\ngini = 0.07\nsamples = 55\nvalue = [53, 2]"] ;
46 -> 47 ;
48 [label="x[18] <= 0.801\ngini = 0.153\nsamples = 24\nvalue = [22, 2]"] ;
47 -> 48 ;
49 [label="x[17] <= 0.98\ngini = 0.245\nsamples = 14\nvalue = [12, 2]"] ;
48 -> 49 ;
50 [label="x[11] <= 0.133\ngini = 0.298\nsamples = 11\nvalue = [9, 2]"] ;
49 -> 50 ;
51 [label="x[29] <= 0.731\ngini = 0.346\nsamples = 9\nvalue = [7, 2]"] ;
50 -> 51 ;
52 [label="gini = 0.0\nsamples = 2\nvalue = [2, 0]"] ;
51 -> 52 ;
53 [label="x[3] <= 0.382\ngini = 0.408\nsamples = 7\nvalue = [5, 2]"] ;
51 -> 53 ;
54 [label="gini = 0.444\nsamples = 6\nvalue = [4, 2]"] ;
53 -> 54 ;
55 [label="gini = 0.0\nsamples = 1\nvalue = [1, 0]"] ;
53 -> 55 ;
56 [label="gini = 0.0\nsamples = 2\nvalue = [2, 0]"] ;
50 -> 56 ;
57 [label="gini = 0.0\nsamples = 3\nvalue = [3, 0]"] ;
49 -> 57 ;
58 [label="gini = 0.0\nsamples = 10\nvalue = [10, 0]"] ;
48 -> 58 ;
59 [label="gini = 0.0\nsamples = 31\nvalue = [31, 0]"] ;
47 -> 59 ;
60 [label="x[24] <= 0.204\ngini = 0.338\nsamples = 79\nvalue = [62, 17]"] ;
46 -> 60 ;
61 [label="x[10] <= 0.096\ngini = 0.371\nsamples = 69\nvalue = [52, 17]"] ;
60 -> 61 ;
62 [label="gini = 0.0\nsamples = 9\nvalue = [9, 0]"] ;
61 -> 62 ;
63 [label="x[28] <= 0.131\ngini = 0.406\nsamples = 60\nvalue = [43, 17]"] ;
61 -> 63 ;
64 [label="x[25] <= 0.087\ngini = 0.423\nsamples = 56\nvalue = [39, 17]"] ;
63 -> 64 ;
65 [label="x[29] <= 0.847\ngini = 0.427\nsamples = 55\nvalue = [38, 17]"] ;
64 -> 65 ;
66 [label="x[19] <= 0.868\ngini = 0.48\nsamples = 5\nvalue = [3, 2]"] ;
65 -> 66 ;
67 [label="gini = 0.0\nsamples = 2\nvalue = [2, 0]"] ;
66 -> 67 ;
68 [label="x[3] <= 0.921\ngini = 0.444\nsamples = 3\nvalue = [1, 2]"] ;
66 -> 68 ;
69 [label="gini = 0.0\nsamples = 1\nvalue = [1, 0]"] ;
68 -> 69 ;
70 [label="gini = 0.0\nsamples = 2\nvalue = [0, 2]"] ;
68 -> 70 ;
71 [label="x[2] <= 0.022\ngini = 0.42\nsamples = 50\nvalue = [35, 15]"] ;
65 -> 71 ;
72 [label="x[18] <= 0.31\ngini = 0.375\nsamples = 20\nvalue = [15, 5]"] ;
71 -> 72 ;
73 [label="gini = 0.0\nsamples = 7\nvalue = [7, 0]"] ;
72 -> 73 ;
74 [label="x[5] <= 0.126\ngini = 0.473\nsamples = 13\nvalue = [8, 5]"] ;
72 -> 74 ;
75 [label="x[8] <= 0.664\ngini = 0.346\nsamples = 9\nvalue = [7, 2]"] ;
74 -> 75 ;
76 [label="gini = 0.0\nsamples = 1\nvalue = [1, 0]"] ;
75 -> 76 ;
77 [label="gini = 0.375\nsamples = 8\nvalue = [6, 2]"] ;
75 -> 77 ;
78 [label="gini = 0.375\nsamples = 4\nvalue = [1, 3]"] ;
74 -> 78 ;
79 [label="x[8] <= 0.744\ngini = 0.444\nsamples = 30\nvalue = [20, 10]"] ;
71 -> 79 ;
80 [label="x[17] <= 0.056\ngini = 0.496\nsamples = 11\nvalue = [6, 5]"] ;
79 -> 80 ;
81 [label="x[18] <= 0.002\ngini = 0.5\nsamples = 10\nvalue = [5, 5]"] ;
80 -> 81 ;
82 [label="x[4] <= 0.304\ngini = 0.444\nsamples = 6\nvalue = [4, 2]"] ;
81 -> 82 ;
83 [label="gini = 0.5\nsamples = 4\nvalue = [2, 2]"] ;
82 -> 83 ;
84 [label="gini = 0.0\nsamples = 2\nvalue = [2, 0]"] ;
82 -> 84 ;
85 [label="x[5] <= 0.297\ngini = 0.375\nsamples = 4\nvalue = [1, 3]"] ;
81 -> 85 ;
86 [label="gini = 0.0\nsamples = 3\nvalue = [0, 3]"] ;
85 -> 86 ;
87 [label="gini = 0.0\nsamples = 1\nvalue = [1, 0]"] ;
85 -> 87 ;
88 [label="gini = 0.0\nsamples = 1\nvalue = [1, 0]"] ;
80 -> 88 ;
89 [label="x[18] <= 0.86\ngini = 0.388\nsamples = 19\nvalue = [14, 5]"] ;
79 -> 89 ;
90 [label="x[17] <= 0.671\ngini = 0.486\nsamples = 12\nvalue = [7, 5]"] ;
89 -> 90 ;
91 [label="gini = 0.42\nsamples = 10\nvalue = [7, 3]"] ;
90 -> 91 ;
92 [label="gini = 0.0\nsamples = 2\nvalue = [0, 2]"] ;
90 -> 92 ;
93 [label="gini = 0.0\nsamples = 7\nvalue = [7, 0]"] ;
89 -> 93 ;
94 [label="gini = 0.0\nsamples = 1\nvalue = [1, 0]"] ;
64 -> 94 ;
95 [label="gini = 0.0\nsamples = 4\nvalue = [4, 0]"] ;
63 -> 95 ;
96 [label="gini = 0.0\nsamples = 10\nvalue = [10, 0]"] ;
60 -> 96 ;
97 [label="x[2] <= 0.393\ngini = 0.483\nsamples = 27\nvalue = [16, 11]"] ;
1 -> 97 ;
98 [label="x[16] <= 0.848\ngini = 0.298\nsamples = 11\nvalue = [9, 2]"] ;
97 -> 98 ;
99 [label="x[9] <= 0.836\ngini = 0.444\nsamples = 3\nvalue = [1, 2]"] ;
98 -> 99 ;
100 [label="gini = 0.0\nsamples = 2\nvalue = [0, 2]"] ;
99 -> 100 ;
101 [label="gini = 0.0\nsamples = 1\nvalue = [1, 0]"] ;
99 -> 101 ;
102 [label="gini = 0.0\nsamples = 8\nvalue = [8, 0]"] ;
98 -> 102 ;
103 [label="x[23] <= 0.288\ngini = 0.492\nsamples = 16\nvalue = [7, 9]"] ;
97 -> 103 ;
104 [label="x[27] <= 0.164\ngini = 0.5\nsamples = 14\nvalue = [7, 7]"] ;
103 -> 104 ;
105 [label="x[15] <= 0.508\ngini = 0.486\nsamples = 12\nvalue = [7, 5]"] ;
104 -> 105 ;
106 [label="gini = 0.0\nsamples = 2\nvalue = [2, 0]"] ;
105 -> 106 ;
107 [label="x[13] <= 0.707\ngini = 0.5\nsamples = 10\nvalue = [5, 5]"] ;
105 -> 107 ;
108 [label="x[0] <= 0.348\ngini = 0.469\nsamples = 8\nvalue = [5, 3]"] ;
107 -> 108 ;
109 [label="gini = 0.0\nsamples = 2\nvalue = [2, 0]"] ;
108 -> 109 ;
110 [label="x[29] <= 0.551\ngini = 0.5\nsamples = 6\nvalue = [3, 3]"] ;
108 -> 110 ;
111 [label="gini = 0.0\nsamples = 2\nvalue = [2, 0]"] ;
110 -> 111 ;
112 [label="gini = 0.375\nsamples = 4\nvalue = [1, 3]"] ;
110 -> 112 ;
113 [label="gini = 0.0\nsamples = 2\nvalue = [0, 2]"] ;
107 -> 113 ;
114 [label="gini = 0.0\nsamples = 2\nvalue = [0, 2]"] ;
104 -> 114 ;
115 [label="gini = 0.0\nsamples = 2\nvalue = [0, 2]"] ;
103 -> 115 ;
116 [label="x[27] <= 0.993\ngini = 0.486\nsamples = 395\nvalue = [231, 164]"] ;
0 -> 116 [labeldistance=2.5, labelangle=-45, headlabel="False"] ;
117 [label="x[19] <= 0.703\ngini = 0.473\nsamples = 357\nvalue = [220, 137]"] ;
116 -> 117 ;
118 [label="x[21] <= 0.368\ngini = 0.342\nsamples = 96\nvalue = [75, 21]"] ;
117 -> 118 ;
119 [label="x[3] <= 0.522\ngini = 0.25\nsamples = 82\nvalue = [70, 12]"] ;
118 -> 119 ;
120 [label="x[12] <= 0.114\ngini = 0.13\nsamples = 43\nvalue = [40, 3]"] ;
119 -> 120 ;
121 [label="gini = 0.0\nsamples = 14\nvalue = [14, 0]"] ;
120 -> 121 ;
122 [label="x[0] <= 0.817\ngini = 0.185\nsamples = 29\nvalue = [26, 3]"] ;
120 -> 122 ;
123 [label="x[29] <= 0.358\ngini = 0.245\nsamples = 21\nvalue = [18, 3]"] ;
122 -> 123 ;
124 [label="gini = 0.0\nsamples = 6\nvalue = [6, 0]"] ;
123 -> 124 ;
125 [label="x[11] <= 0.185\ngini = 0.32\nsamples = 15\nvalue = [12, 3]"] ;
123 -> 125 ;
126 [label="x[9] <= 0.793\ngini = 0.375\nsamples = 12\nvalue = [9, 3]"] ;
125 -> 126 ;
127 [label="x[4] <= 0.069\ngini = 0.408\nsamples = 7\nvalue = [5, 2]"] ;
126 -> 127 ;
128 [label="gini = 0.5\nsamples = 4\nvalue = [2, 2]"] ;
127 -> 128 ;
129 [label="gini = 0.0\nsamples = 3\nvalue = [3, 0]"] ;
127 -> 129 ;
130 [label="x[4] <= 0.145\ngini = 0.32\nsamples = 5\nvalue = [4, 1]"] ;
126 -> 130 ;
131 [label="gini = 0.0\nsamples = 3\nvalue = [3, 0]"] ;
130 -> 131 ;
132 [label="gini = 0.5\nsamples = 2\nvalue = [1, 1]"] ;
130 -> 132 ;
133 [label="gini = 0.0\nsamples = 3\nvalue = [3, 0]"] ;
125 -> 133 ;
134 [label="gini = 0.0\nsamples = 8\nvalue = [8, 0]"] ;
122 -> 134 ;
135 [label="x[4] <= 0.08\ngini = 0.355\nsamples = 39\nvalue = [30, 9]"] ;
119 -> 135 ;
136 [label="x[14] <= 0.513\ngini = 0.083\nsamples = 23\nvalue = [22, 1]"] ;
135 -> 136 ;
137 [label="gini = 0.0\nsamples = 14\nvalue = [14, 0]"] ;
136 -> 137 ;
138 [label="x[17] <= 0.158\ngini = 0.198\nsamples = 9\nvalue = [8, 1]"] ;
136 -> 138 ;
139 [label="x[29] <= 0.35\ngini = 0.32\nsamples = 5\nvalue = [4, 1]"] ;
138 -> 139 ;
140 [label="gini = 0.0\nsamples = 2\nvalue = [2, 0]"] ;
139 -> 140 ;
141 [label="x[13] <= 0.645\ngini = 0.444\nsamples = 3\nvalue = [2, 1]"] ;
139 -> 141 ;
142 [label="x[8] <= 0.373\ngini = 0.5\nsamples = 2\nvalue = [1, 1]"] ;
141 -> 142 ;
143 [label="gini = 0.0\nsamples = 1\nvalue = [1, 0]"] ;
142 -> 143 ;
144 [label="gini = 0.0\nsamples = 1\nvalue = [0, 1]"] ;
142 -> 144 ;
145 [label="gini = 0.0\nsamples = 1\nvalue = [1, 0]"] ;
141 -> 145 ;
146 [label="gini = 0.0\nsamples = 4\nvalue = [4, 0]"] ;
138 -> 146 ;
147 [label="x[17] <= 0.577\ngini = 0.5\nsamples = 16\nvalue = [8, 8]"] ;
135 -> 147 ;
148 [label="x[13] <= 0.185\ngini = 0.49\nsamples = 14\nvalue = [8, 6]"] ;
147 -> 148 ;
149 [label="x[29] <= 0.224\ngini = 0.496\nsamples = 11\nvalue = [5, 6]"] ;
148 -> 149 ;
150 [label="gini = 0.0\nsamples = 1\nvalue = [1, 0]"] ;
149 -> 150 ;
151 [label="x[8] <= 0.539\ngini = 0.48\nsamples = 10\nvalue = [4, 6]"] ;
149 -> 151 ;
152 [label="x[15] <= 0.415\ngini = 0.5\nsamples = 6\nvalue = [3, 3]"] ;
151 -> 152 ;
153 [label="gini = 0.48\nsamples = 5\nvalue = [2, 3]"] ;
152 -> 153 ;
154 [label="gini = 0.0\nsamples = 1\nvalue = [1, 0]"] ;
152 -> 154 ;
155 [label="x[15] <= 0.488\ngini = 0.375\nsamples = 4\nvalue = [1, 3]"] ;
151 -> 155 ;
156 [label="gini = 0.0\nsamples = 1\nvalue = [1, 0]"] ;
155 -> 156 ;
157 [label="gini = 0.0\nsamples = 3\nvalue = [0, 3]"] ;
155 -> 157 ;
158 [label="gini = 0.0\nsamples = 3\nvalue = [3, 0]"] ;
148 -> 158 ;
159 [label="gini = 0.0\nsamples = 2\nvalue = [0, 2]"] ;
147 -> 159 ;
160 [label="x[16] <= 0.031\ngini = 0.459\nsamples = 14\nvalue = [5, 9]"] ;
118 -> 160 ;
161 [label="x[15] <= 0.071\ngini = 0.18\nsamples = 10\nvalue = [1, 9]"] ;
160 -> 161 ;
162 [label="x[12] <= 0.036\ngini = 0.444\nsamples = 3\nvalue = [1, 2]"] ;
161 -> 162 ;
163 [label="gini = 0.0\nsamples = 2\nvalue = [0, 2]"] ;
162 -> 163 ;
164 [label="gini = 0.0\nsamples = 1\nvalue = [1, 0]"] ;
162 -> 164 ;
165 [label="gini = 0.0\nsamples = 7\nvalue = [0, 7]"] ;
161 -> 165 ;
166 [label="gini = 0.0\nsamples = 4\nvalue = [4, 0]"] ;
160 -> 166 ;
167 [label="x[4] <= 0.052\ngini = 0.494\nsamples = 261\nvalue = [145, 116]"] ;
117 -> 167 ;
168 [label="x[29] <= 0.24\ngini = 0.5\nsamples = 198\nvalue = [101.0, 97.0]"] ;
167 -> 168 ;
169 [label="x[13] <= 0.122\ngini = 0.444\nsamples = 24\nvalue = [8, 16]"] ;
168 -> 169 ;
170 [label="x[28] <= 0.75\ngini = 0.469\nsamples = 8\nvalue = [5, 3]"] ;
169 -> 170 ;
171 [label="x[20] <= 0.736\ngini = 0.48\nsamples = 5\nvalue = [2, 3]"] ;
170 -> 171 ;
172 [label="gini = 0.0\nsamples = 1\nvalue = [1, 0]"] ;
171 -> 172 ;
173 [label="x[2] <= 0.568\ngini = 0.375\nsamples = 4\nvalue = [1, 3]"] ;
171 -> 173 ;
174 [label="x[24] <= 0.331\ngini = 0.5\nsamples = 2\nvalue = [1, 1]"] ;
173 -> 174 ;
175 [label="gini = 0.0\nsamples = 1\nvalue = [0, 1]"] ;
174 -> 175 ;
176 [label="gini = 0.0\nsamples = 1\nvalue = [1, 0]"] ;
174 -> 176 ;
177 [label="gini = 0.0\nsamples = 2\nvalue = [0, 2]"] ;
173 -> 177 ;
178 [label="gini = 0.0\nsamples = 3\nvalue = [3, 0]"] ;
170 -> 178 ;
179 [label="x[11] <= 0.947\ngini = 0.305\nsamples = 16\nvalue = [3, 13]"] ;
169 -> 179 ;
180 [label="x[3] <= 0.241\ngini = 0.153\nsamples = 12\nvalue = [1, 11]"] ;
179 -> 180 ;
181 [label="gini = 0.0\nsamples = 8\nvalue = [0, 8]"] ;
180 -> 181 ;
182 [label="x[24] <= 0.435\ngini = 0.375\nsamples = 4\nvalue = [1, 3]"] ;
180 -> 182 ;
183 [label="gini = 0.0\nsamples = 3\nvalue = [0, 3]"] ;
182 -> 183 ;
184 [label="gini = 0.0\nsamples = 1\nvalue = [1, 0]"] ;
182 -> 184 ;
185 [label="x[15] <= 0.178\ngini = 0.5\nsamples = 4\nvalue = [2, 2]"] ;
179 -> 185 ;
186 [label="gini = 0.0\nsamples = 2\nvalue = [0, 2]"] ;
185 -> 186 ;
187 [label="gini = 0.0\nsamples = 2\nvalue = [2, 0]"] ;
185 -> 187 ;
188 [label="x[14] <= 0.207\ngini = 0.498\nsamples = 174\nvalue = [93.0, 81.0]"] ;
168 -> 188 ;
189 [label="x[17] <= 0.123\ngini = 0.5\nsamples = 133\nvalue = [65, 68]"] ;
188 -> 189 ;
190 [label="x[0] <= 0.176\ngini = 0.444\nsamples = 30\nvalue = [20, 10]"] ;
189 -> 190 ;
191 [label="x[2] <= 0.133\ngini = 0.351\nsamples = 22\nvalue = [17, 5]"] ;
190 -> 191 ;
192 [label="gini = 0.0\nsamples = 10\nvalue = [10, 0]"] ;
191 -> 192 ;
193 [label="x[9] <= 0.948\ngini = 0.486\nsamples = 12\nvalue = [7, 5]"] ;
191 -> 193 ;
194 [label="gini = 0.0\nsamples = 5\nvalue = [5, 0]"] ;
193 -> 194 ;
195 [label="x[20] <= 0.287\ngini = 0.408\nsamples = 7\nvalue = [2, 5]"] ;
193 -> 195 ;
196 [label="gini = 0.0\nsamples = 1\nvalue = [1, 0]"] ;
195 -> 196 ;
197 [label="x[13] <= 0.578\ngini = 0.278\nsamples = 6\nvalue = [1, 5]"] ;
195 -> 197 ;
198 [label="gini = 0.0\nsamples = 3\nvalue = [0, 3]"] ;
197 -> 198 ;
199 [label="gini = 0.444\nsamples = 3\nvalue = [1, 2]"] ;
197 -> 199 ;
200 [label="x[12] <= 0.223\ngini = 0.469\nsamples = 8\nvalue = [3, 5]"] ;
190 -> 200 ;
201 [label="gini = 0.0\nsamples = 2\nvalue = [2, 0]"] ;
200 -> 201 ;
202 [label="x[2] <= 0.055\ngini = 0.278\nsamples = 6\nvalue = [1, 5]"] ;
200 -> 202 ;
203 [label="gini = 0.0\nsamples = 5\nvalue = [0, 5]"] ;
202 -> 203 ;
204 [label="gini = 0.0\nsamples = 1\nvalue = [1, 0]"] ;
202 -> 204 ;
205 [label="x[8] <= 0.098\ngini = 0.492\nsamples = 103\nvalue = [45, 58]"] ;
189 -> 205 ;
206 [label="x[3] <= 0.994\ngini = 0.486\nsamples = 96\nvalue = [40, 56]"] ;
205 -> 206 ;
207 [label="x[21] <= 0.418\ngini = 0.426\nsamples = 26\nvalue = [8, 18]"] ;
206 -> 207 ;
208 [label="x[12] <= 0.55\ngini = 0.403\nsamples = 25\nvalue = [7.0, 18.0]"] ;
207 -> 208 ;
209 [label="x[10] <= 0.452\ngini = 0.459\nsamples = 14\nvalue = [5, 9]"] ;
208 -> 209 ;
210 [label="gini = 0.426\nsamples = 13\nvalue = [4, 9]"] ;
209 -> 210 ;
211 [label="gini = 0.0\nsamples = 1\nvalue = [1, 0]"] ;
209 -> 211 ;
212 [label="x[11] <= 0.048\ngini = 0.298\nsamples = 11\nvalue = [2, 9]"] ;
208 -> 212 ;
213 [label="x[0] <= 0.523\ngini = 0.219\nsamples = 8\nvalue = [1, 7]"] ;
212 -> 213 ;
214 [label="gini = 0.0\nsamples = 2\nvalue = [0, 2]"] ;
213 -> 214 ;
215 [label="gini = 0.278\nsamples = 6\nvalue = [1, 5]"] ;
213 -> 215 ;
216 [label="gini = 0.444\nsamples = 3\nvalue = [1, 2]"] ;
212 -> 216 ;
217 [label="gini = 0.0\nsamples = 1\nvalue = [1, 0]"] ;
207 -> 217 ;
218 [label="x[20] <= 0.018\ngini = 0.496\nsamples = 70\nvalue = [32, 38]"] ;
206 -> 218 ;
219 [label="x[10] <= 0.786\ngini = 0.415\nsamples = 17\nvalue = [5, 12]"] ;
218 -> 219 ;
220 [label="x[1] <= 0.842\ngini = 0.375\nsamples = 16\nvalue = [4, 12]"] ;
219 -> 220 ;
221 [label="gini = 0.0\nsamples = 1\nvalue = [1, 0]"] ;
220 -> 221 ;
222 [label="x[12] <= 0.552\ngini = 0.32\nsamples = 15\nvalue = [3, 12]"] ;
220 -> 222 ;
223 [label="gini = 0.397\nsamples = 11\nvalue = [3, 8]"] ;
222 -> 223 ;
224 [label="gini = 0.0\nsamples = 4\nvalue = [0, 4]"] ;
222 -> 224 ;
225 [label="gini = 0.0\nsamples = 1\nvalue = [1, 0]"] ;
219 -> 225 ;
226 [label="x[11] <= 0.279\ngini = 0.5\nsamples = 53\nvalue = [27, 26]"] ;
218 -> 226 ;
227 [label="x[12] <= 0.444\ngini = 0.426\nsamples = 13\nvalue = [4, 9]"] ;
226 -> 227 ;
228 [label="gini = 0.0\nsamples = 2\nvalue = [2, 0]"] ;
227 -> 228 ;
229 [label="gini = 0.298\nsamples = 11\nvalue = [2, 9]"] ;
227 -> 229 ;
230 [label="x[13] <= 0.195\ngini = 0.489\nsamples = 40\nvalue = [23, 17]"] ;
226 -> 230 ;
231 [label="x[22] <= 0.424\ngini = 0.375\nsamples = 12\nvalue = [9, 3]"] ;
230 -> 231 ;
232 [label="gini = 0.0\nsamples = 1\nvalue = [1, 0]"] ;
231 -> 232 ;
233 [label="gini = 0.397\nsamples = 11\nvalue = [8, 3]"] ;
231 -> 233 ;
234 [label="x[23] <= 0.908\ngini = 0.5\nsamples = 28\nvalue = [14, 14]"] ;
230 -> 234 ;
235 [label="x[0] <= 0.327\ngini = 0.499\nsamples = 27\nvalue = [14, 13]"] ;
234 -> 235 ;
236 [label="gini = 0.5\nsamples = 26\nvalue = [13, 13]"] ;
235 -> 236 ;
237 [label="gini = 0.0\nsamples = 1\nvalue = [1, 0]"] ;
235 -> 237 ;
238 [label="gini = 0.0\nsamples = 1\nvalue = [0, 1]"] ;
234 -> 238 ;
239 [label="x[12] <= 0.873\ngini = 0.408\nsamples = 7\nvalue = [5, 2]"] ;
205 -> 239 ;
240 [label="gini = 0.444\nsamples = 3\nvalue = [1, 2]"] ;
239 -> 240 ;
241 [label="gini = 0.0\nsamples = 4\nvalue = [4, 0]"] ;
239 -> 241 ;
242 [label="x[9] <= 0.83\ngini = 0.433\nsamples = 41\nvalue = [28.0, 13.0]"] ;
188 -> 242 ;
243 [label="x[12] <= 0.573\ngini = 0.499\nsamples = 23\nvalue = [11, 12]"] ;
242 -> 243 ;
244 [label="gini = 0.0\nsamples = 5\nvalue = [5, 0]"] ;
243 -> 244 ;
245 [label="x[2] <= 0.753\ngini = 0.444\nsamples = 18\nvalue = [6, 12]"] ;
243 -> 245 ;
246 [label="x[1] <= 0.136\ngini = 0.49\nsamples = 7\nvalue = [4, 3]"] ;
245 -> 246 ;
247 [label="gini = 0.375\nsamples = 4\nvalue = [1, 3]"] ;
246 -> 247 ;
248 [label="gini = 0.0\nsamples = 3\nvalue = [3, 0]"] ;
246 -> 248 ;
249 [label="x[1] <= 0.366\ngini = 0.298\nsamples = 11\nvalue = [2, 9]"] ;
245 -> 249 ;
250 [label="gini = 0.375\nsamples = 4\nvalue = [1, 3]"] ;
249 -> 250 ;
251 [label="gini = 0.245\nsamples = 7\nvalue = [1, 6]"] ;
249 -> 251 ;
252 [label="x[2] <= 0.243\ngini = 0.105\nsamples = 18\nvalue = [17, 1]"] ;
242 -> 252 ;
253 [label="x[16] <= 0.605\ngini = 0.198\nsamples = 9\nvalue = [8, 1]"] ;
252 -> 253 ;
254 [label="x[1] <= 0.984\ngini = 0.245\nsamples = 7\nvalue = [6, 1]"] ;
253 -> 254 ;
255 [label="gini = 0.0\nsamples = 1\nvalue = [1, 0]"] ;
254 -> 255 ;
256 [label="gini = 0.278\nsamples = 6\nvalue = [5, 1]"] ;
254 -> 256 ;
257 [label="gini = 0.0\nsamples = 2\nvalue = [2, 0]"] ;
253 -> 257 ;
258 [label="gini = 0.0\nsamples = 9\nvalue = [9, 0]"] ;
252 -> 258 ;
259 [label="x[29] <= 0.084\ngini = 0.421\nsamples = 63\nvalue = [44, 19]"] ;
167 -> 259 ;
260 [label="gini = 0.0\nsamples = 7\nvalue = [7, 0]"] ;
259 -> 260 ;
261 [label="x[8] <= 0.783\ngini = 0.448\nsamples = 56\nvalue = [37, 19]"] ;
259 -> 261 ;
262 [label="x[16] <= 0.445\ngini = 0.394\nsamples = 37\nvalue = [27, 10]"] ;
261 -> 262 ;
263 [label="x[12] <= 0.778\ngini = 0.208\nsamples = 17\nvalue = [15, 2]"] ;
262 -> 263 ;
264 [label="gini = 0.0\nsamples = 10\nvalue = [10, 0]"] ;
263 -> 264 ;
265 [label="x[11] <= 0.111\ngini = 0.408\nsamples = 7\nvalue = [5, 2]"] ;
263 -> 265 ;
266 [label="gini = 0.0\nsamples = 3\nvalue = [3, 0]"] ;
265 -> 266 ;
267 [label="x[15] <= 0.471\ngini = 0.5\nsamples = 4\nvalue = [2, 2]"] ;
265 -> 267 ;
268 [label="gini = 0.0\nsamples = 1\nvalue = [1, 0]"] ;
267 -> 268 ;
269 [label="x[21] <= 0.116\ngini = 0.444\nsamples = 3\nvalue = [1, 2]"] ;
267 -> 269 ;
270 [label="gini = 0.0\nsamples = 2\nvalue = [0, 2]"] ;
269 -> 270 ;
271 [label="gini = 0.0\nsamples = 1\nvalue = [1, 0]"] ;
269 -> 271 ;
272 [label="x[0] <= 0.004\ngini = 0.48\nsamples = 20\nvalue = [12, 8]"] ;
262 -> 272 ;
273 [label="x[20] <= 0.519\ngini = 0.498\nsamples = 17\nvalue = [9, 8]"] ;
272 -> 273 ;
274 [label="gini = 0.0\nsamples = 2\nvalue = [2, 0]"] ;
273 -> 274 ;
275 [label="x[10] <= 0.201\ngini = 0.498\nsamples = 15\nvalue = [7, 8]"] ;
273 -> 275 ;
276 [label="x[2] <= 0.926\ngini = 0.278\nsamples = 6\nvalue = [1, 5]"] ;
275 -> 276 ;
277 [label="gini = 0.0\nsamples = 1\nvalue = [1, 0]"] ;
276 -> 277 ;
278 [label="gini = 0.0\nsamples = 5\nvalue = [0, 5]"] ;
276 -> 278 ;
279 [label="x[12] <= 0.557\ngini = 0.444\nsamples = 9\nvalue = [6, 3]"] ;
275 -> 279 ;
280 [label="x[15] <= 0.813\ngini = 0.48\nsamples = 5\nvalue = [2, 3]"] ;
279 -> 280 ;
281 [label="gini = 0.375\nsamples = 4\nvalue = [1, 3]"] ;
280 -> 281 ;
282 [label="gini = 0.0\nsamples = 1\nvalue = [1, 0]"] ;
280 -> 282 ;
283 [label="gini = 0.0\nsamples = 4\nvalue = [4, 0]"] ;
279 -> 283 ;
284 [label="gini = 0.0\nsamples = 3\nvalue = [3, 0]"] ;
272 -> 284 ;
285 [label="x[14] <= 0.772\ngini = 0.499\nsamples = 19\nvalue = [10, 9]"] ;
261 -> 285 ;
286 [label="x[10] <= 0.696\ngini = 0.498\nsamples = 17\nvalue = [8, 9]"] ;
285 -> 286 ;
287 [label="gini = 0.0\nsamples = 3\nvalue = [0, 3]"] ;
286 -> 287 ;
288 [label="x[3] <= 0.101\ngini = 0.49\nsamples = 14\nvalue = [8, 6]"] ;
286 -> 288 ;
289 [label="gini = 0.0\nsamples = 6\nvalue = [6, 0]"] ;
288 -> 289 ;
290 [label="x[1] <= 0.275\ngini = 0.375\nsamples = 8\nvalue = [2, 6]"] ;
288 -> 290 ;
291 [label="gini = 0.0\nsamples = 1\nvalue = [1, 0]"] ;
290 -> 291 ;
292 [label="x[13] <= 0.601\ngini = 0.245\nsamples = 7\nvalue = [1, 6]"] ;
290 -> 292 ;
293 [label="gini = 0.375\nsamples = 4\nvalue = [1, 3]"] ;
292 -> 293 ;
294 [label="gini = 0.0\nsamples = 3\nvalue = [0, 3]"] ;
292 -> 294 ;
295 [label="gini = 0.0\nsamples = 2\nvalue = [2, 0]"] ;
285 -> 295 ;
296 [label="x[4] <= 0.912\ngini = 0.411\nsamples = 38\nvalue = [11, 27]"] ;
116 -> 296 ;
297 [label="x[2] <= 0.027\ngini = 0.498\nsamples = 15\nvalue = [8, 7]"] ;
296 -> 297 ;
298 [label="x[1] <= 0.617\ngini = 0.463\nsamples = 11\nvalue = [4, 7]"] ;
297 -> 298 ;
299 [label="gini = 0.0\nsamples = 3\nvalue = [0, 3]"] ;
298 -> 299 ;
300 [label="x[14] <= 0.837\ngini = 0.5\nsamples = 8\nvalue = [4, 4]"] ;
298 -> 300 ;
301 [label="x[10] <= 0.763\ngini = 0.32\nsamples = 5\nvalue = [1, 4]"] ;
300 -> 301 ;
302 [label="gini = 0.444\nsamples = 3\nvalue = [1, 2]"] ;
301 -> 302 ;
303 [label="gini = 0.0\nsamples = 2\nvalue = [0, 2]"] ;
301 -> 303 ;
304 [label="gini = 0.0\nsamples = 3\nvalue = [3, 0]"] ;
300 -> 304 ;
305 [label="gini = 0.0\nsamples = 4\nvalue = [4, 0]"] ;
297 -> 305 ;
306 [label="x[1] <= 0.217\ngini = 0.227\nsamples = 23\nvalue = [3, 20]"] ;
296 -> 306 ;
307 [label="gini = 0.0\nsamples = 1\nvalue = [1, 0]"] ;
306 -> 307 ;
308 [label="x[2] <= 0.133\ngini = 0.165\nsamples = 22\nvalue = [2, 20]"] ;
306 -> 308 ;
309 [label="gini = 0.0\nsamples = 14\nvalue = [0, 14]"] ;
308 -> 309 ;
310 [label="x[18] <= 0.783\ngini = 0.375\nsamples = 8\nvalue = [2, 6]"] ;
308 -> 310 ;
311 [label="x[11] <= 0.268\ngini = 0.48\nsamples = 5\nvalue = [2, 3]"] ;
310 -> 311 ;
312 [label="gini = 0.0\nsamples = 1\nvalue = [1, 0]"] ;
311 -> 312 ;
313 [label="gini = 0.375\nsamples = 4\nvalue = [1, 3]"] ;
311 -> 313 ;
314 [label="gini = 0.0\nsamples = 3\nvalue = [0, 3]"] ;
310 -> 314 ;
}